digraph Tree {
node [shape=box, style="filled, rounded", color="black", fontname=helvetica] ;
edge [fontname=helvetica] ;
0 [label="cp <= -0.497\nentropy = 0.994\nsamples = 211\nvalue = [96, 115]\nclass =  ", fillcolor="#deeffb"] ;
1 [label="ca <= -0.152\nentropy = 0.843\nsamples = 96\nvalue = [70, 26]\nclass = 0", fillcolor="#efb083"] ;
0 -> 1 [labeldistance=2.5, labelangle=45, headlabel="True"] ;
2 [label="thal <= 0.305\nentropy = 1.0\nsamples = 48\nvalue = [24, 24]\nclass = 0", fillcolor="#ffffff"] ;
1 -> 2 ;
3 [label="exang <= 0.44\nentropy = 0.826\nsamples = 27\nvalue = [7, 20]\nclass =  ", fillcolor="#7ebfee"] ;
2 -> 3 ;
4 [label="chol <= 1.295\nentropy = 0.323\nsamples = 17\nvalue = [1, 16]\nclass =  ", fillcolor="#45a3e7"] ;
3 -> 4 ;
5 [label="entropy = 0.0\nsamples = 15\nvalue = [0, 15]\nclass =  ", fillcolor="#399de5"] ;
4 -> 5 ;
6 [label="entropy = 1.0\nsamples = 2\nvalue = [1, 1]\nclass = 0", fillcolor="#ffffff"] ;
4 -> 6 ;
7 [label="slope <= 0.134\nentropy = 0.971\nsamples = 10\nvalue = [6, 4]\nclass = 0", fillcolor="#f6d5bd"] ;
3 -> 7 ;
8 [label="chol <= -0.109\nentropy = 0.811\nsamples = 8\nvalue = [6, 2]\nclass = 0", fillcolor="#eeab7b"] ;
7 -> 8 ;
9 [label="chol <= -0.861\nentropy = 1.0\nsamples = 4\nvalue = [2, 2]\nclass = 0", fillcolor="#ffffff"] ;
8 -> 9 ;
10 [label="entropy = 0.0\nsamples = 2\nvalue = [2, 0]\nclass = 0", fillcolor="#e58139"] ;
9 -> 10 ;
11 [label="entropy = 0.0\nsamples = 2\nvalue = [0, 2]\nclass =  ", fillcolor="#399de5"] ;
9 -> 11 ;
12 [label="entropy = 0.0\nsamples = 4\nvalue = [4, 0]\nclass = 0", fillcolor="#e58139"] ;
8 -> 12 ;
13 [label="entropy = 0.0\nsamples = 2\nvalue = [0, 2]\nclass =  ", fillcolor="#399de5"] ;
7 -> 13 ;
14 [label="age <= -0.253\nentropy = 0.702\nsamples = 21\nvalue = [17, 4]\nclass = 0", fillcolor="#eb9f68"] ;
2 -> 14 ;
15 [label="entropy = 0.0\nsamples = 11\nvalue = [11, 0]\nclass = 0", fillcolor="#e58139"] ;
14 -> 15 ;
16 [label="trestbps <= 0.337\nentropy = 0.971\nsamples = 10\nvalue = [6, 4]\nclass = 0", fillcolor="#f6d5bd"] ;
14 -> 16 ;
17 [label="entropy = 0.0\nsamples = 3\nvalue = [0, 3]\nclass =  ", fillcolor="#399de5"] ;
16 -> 17 ;
18 [label="age <= 0.19\nentropy = 0.592\nsamples = 7\nvalue = [6, 1]\nclass = 0", fillcolor="#e9965a"] ;
16 -> 18 ;
19 [label="entropy = 1.0\nsamples = 2\nvalue = [1, 1]\nclass = 0", fillcolor="#ffffff"] ;
18 -> 19 ;
20 [label="entropy = 0.0\nsamples = 5\nvalue = [5, 0]\nclass = 0", fillcolor="#e58139"] ;
18 -> 20 ;
21 [label="restecg <= -0.04\nentropy = 0.25\nsamples = 48\nvalue = [46, 2]\nclass = 0", fillcolor="#e68642"] ;
1 -> 21 ;
22 [label="entropy = 0.0\nsamples = 30\nvalue = [30, 0]\nclass = 0", fillcolor="#e58139"] ;
21 -> 22 ;
23 [label="ca <= 0.901\nentropy = 0.503\nsamples = 18\nvalue = [16, 2]\nclass = 0", fillcolor="#e89152"] ;
21 -> 23 ;
24 [label="entropy = 0.0\nsamples = 11\nvalue = [11, 0]\nclass = 0", fillcolor="#e58139"] ;
23 -> 24 ;
25 [label="thalach <= 0.27\nentropy = 0.863\nsamples = 7\nvalue = [5, 2]\nclass = 0", fillcolor="#efb388"] ;
23 -> 25 ;
26 [label="trestbps <= -0.736\nentropy = 1.0\nsamples = 4\nvalue = [2, 2]\nclass = 0", fillcolor="#ffffff"] ;
25 -> 26 ;
27 [label="entropy = 1.0\nsamples = 2\nvalue = [1, 1]\nclass = 0", fillcolor="#ffffff"] ;
26 -> 27 ;
28 [label="entropy = 1.0\nsamples = 2\nvalue = [1, 1]\nclass = 0", fillcolor="#ffffff"] ;
26 -> 28 ;
29 [label="entropy = 0.0\nsamples = 3\nvalue = [3, 0]\nclass = 0", fillcolor="#e58139"] ;
25 -> 29 ;
30 [label="ca <= -0.152\nentropy = 0.771\nsamples = 115\nvalue = [26, 89]\nclass =  ", fillcolor="#73baed"] ;
0 -> 30 [labeldistance=2.5, labelangle=-45, headlabel="False"] ;
31 [label="sex <= -0.302\nentropy = 0.503\nsamples = 81\nvalue = [9, 72]\nclass =  ", fillcolor="#52a9e8"] ;
30 -> 31 ;
32 [label="entropy = 0.0\nsamples = 34\nvalue = [0, 34]\nclass =  ", fillcolor="#399de5"] ;
31 -> 32 ;
33 [label="thalach <= 0.833\nentropy = 0.705\nsamples = 47\nvalue = [9, 38]\nclass =  ", fillcolor="#68b4eb"] ;
31 -> 33 ;
34 [label="chol <= 0.249\nentropy = 0.918\nsamples = 27\nvalue = [9, 18]\nclass =  ", fillcolor="#9ccef2"] ;
33 -> 34 ;
35 [label="chol <= -0.632\nentropy = 0.702\nsamples = 21\nvalue = [4, 17]\nclass =  ", fillcolor="#68b4eb"] ;
34 -> 35 ;
36 [label="entropy = 0.0\nsamples = 8\nvalue = [0, 8]\nclass =  ", fillcolor="#399de5"] ;
35 -> 36 ;
37 [label="age <= -0.364\nentropy = 0.89\nsamples = 13\nvalue = [4, 9]\nclass =  ", fillcolor="#91c9f1"] ;
35 -> 37 ;
38 [label="chol <= -0.237\nentropy = 0.971\nsamples = 5\nvalue = [3, 2]\nclass = 0", fillcolor="#f6d5bd"] ;
37 -> 38 ;
39 [label="entropy = 0.0\nsamples = 2\nvalue = [2, 0]\nclass = 0", fillcolor="#e58139"] ;
38 -> 39 ;
40 [label="entropy = 0.918\nsamples = 3\nvalue = [1, 2]\nclass =  ", fillcolor="#9ccef2"] ;
38 -> 40 ;
41 [label="chol <= -0.54\nentropy = 0.544\nsamples = 8\nvalue = [1, 7]\nclass =  ", fillcolor="#55abe9"] ;
37 -> 41 ;
42 [label="entropy = 1.0\nsamples = 2\nvalue = [1, 1]\nclass = 0", fillcolor="#ffffff"] ;
41 -> 42 ;
43 [label="entropy = 0.0\nsamples = 6\nvalue = [0, 6]\nclass =  ", fillcolor="#399de5"] ;
41 -> 43 ;
44 [label="chol <= 0.736\nentropy = 0.65\nsamples = 6\nvalue = [5, 1]\nclass = 0", fillcolor="#ea9a61"] ;
34 -> 44 ;
45 [label="entropy = 0.0\nsamples = 4\nvalue = [4, 0]\nclass = 0", fillcolor="#e58139"] ;
44 -> 45 ;
46 [label="entropy = 1.0\nsamples = 2\nvalue = [1, 1]\nclass = 0", fillcolor="#ffffff"] ;
44 -> 46 ;
47 [label="entropy = 0.0\nsamples = 20\nvalue = [0, 20]\nclass =  ", fillcolor="#399de5"] ;
33 -> 47 ;
48 [label="slope <= 0.134\nentropy = 1.0\nsamples = 34\nvalue = [17, 17]\nclass = 0", fillcolor="#ffffff"] ;
30 -> 48 ;
49 [label="age <= 0.799\nentropy = 0.722\nsamples = 15\nvalue = [12, 3]\nclass = 0", fillcolor="#eca06a"] ;
48 -> 49 ;
50 [label="entropy = 0.0\nsamples = 7\nvalue = [7, 0]\nclass = 0", fillcolor="#e58139"] ;
49 -> 50 ;
51 [label="chol <= -0.035\nentropy = 0.954\nsamples = 8\nvalue = [5, 3]\nclass = 0", fillcolor="#f5cdb0"] ;
49 -> 51 ;
52 [label="entropy = 0.0\nsamples = 2\nvalue = [0, 2]\nclass =  ", fillcolor="#399de5"] ;
51 -> 52 ;
53 [label="trestbps <= 0.648\nentropy = 0.65\nsamples = 6\nvalue = [5, 1]\nclass = 0", fillcolor="#ea9a61"] ;
51 -> 53 ;
54 [label="entropy = 0.0\nsamples = 4\nvalue = [4, 0]\nclass = 0", fillcolor="#e58139"] ;
53 -> 54 ;
55 [label="entropy = 1.0\nsamples = 2\nvalue = [1, 1]\nclass = 0", fillcolor="#ffffff"] ;
53 -> 55 ;
56 [label="ca <= 0.901\nentropy = 0.831\nsamples = 19\nvalue = [5, 14]\nclass =  ", fillcolor="#80c0ee"] ;
48 -> 56 ;
57 [label="thalach <= 0.788\nentropy = 0.439\nsamples = 11\nvalue = [1, 10]\nclass =  ", fillcolor="#4da7e8"] ;
56 -> 57 ;
58 [label="entropy = 0.0\nsamples = 9\nvalue = [0, 9]\nclass =  ", fillcolor="#399de5"] ;
57 -> 58 ;
59 [label="entropy = 1.0\nsamples = 2\nvalue = [1, 1]\nclass = 0", fillcolor="#ffffff"] ;
57 -> 59 ;
60 [label="trestbps <= 0.309\nentropy = 1.0\nsamples = 8\nvalue = [4, 4]\nclass = 0", fillcolor="#ffffff"] ;
56 -> 60 ;
61 [label="age <= 0.135\nentropy = 0.722\nsamples = 5\nvalue = [4, 1]\nclass = 0", fillcolor="#eca06a"] ;
60 -> 61 ;
62 [label="entropy = 1.0\nsamples = 2\nvalue = [1, 1]\nclass = 0", fillcolor="#ffffff"] ;
61 -> 62 ;
63 [label="entropy = 0.0\nsamples = 3\nvalue = [3, 0]\nclass = 0", fillcolor="#e58139"] ;
61 -> 63 ;
64 [label="entropy = 0.0\nsamples = 3\nvalue = [0, 3]\nclass =  ", fillcolor="#399de5"] ;
60 -> 64 ;
}